{"learner":{"attributes":{"scikit_learn":"{\"_estimator_type\": \"regressor\"}"},"feature_names":["part_no","year","month","week_of_year","day_of_month","day_of_week","day_of_week_sin","day_of_week_cos","month_sin","month_cos","days_since_last_purchase","3_month_avg","6_month_avg","3_month_std","30d_sum","90d_sum","lag_1","lag_7","lag_14","lag_30","lag_90","is_active"],"feature_types":["int","int","int","int","int","int","float","float","float","float","float","float","float","float","float","float","float","float","float","float","float","int"],"gradient_booster":{"model":{"gbtree_model_param":{"num_parallel_tree":"1","num_trees":"100"},"iteration_indptr":[0,1,2,3,4,5,6,7,8,9,10,11,12,13,14,15,16,17,18,19,20,21,22,23,24,25,26,27,28,29,30,31,32,33,34,35,36,37,38,39,40,41,42,43,44,45,46,47,48,49,50,51,52,53,54,55,56,57,58,59,60,61,62,63,64,65,66,67,68,69,70,71,72,73,74,75,76,77,78,79,80,81,82,83,84,85,86,87,88,89,90,91,92,93,94,95,96,97,98,99,100],"tree_info":[0,0,0,0,0,0,0,0,0,0,0,0,0,0,0,0,0,0,0,0,0,0,0,0,0,0,0,0,0,0,0,0,0,0,0,0,0,0,0,0,0,0,0,0,0,0,0,0,0,0,0,0,0,0,0,0,0,0,0,0,0,0,0,0,0,0,0,0,0,0,0,0,0,0,0,0,0,0,0,0,0,0,0,0,0,0,0,0,0,0,0,0,0,0,0,0,0,0,0,0],"trees":[{"base_weights":[1.18029E-9,-4.296657E-1,7.5481814E-1,-1.3789228E-1,-2.6908976E-3,4.95807E-1,3.0110818E-1,7.4566185E-2,1.4553231E-1],"categories":[],"categories_nodes":[],"categories_segments":[],"categories_sizes":[],"default_left":[0,0,0,0,0,0,0,0,0],"id":0,"left_children":[1,3,5,-1,-1,7,-1,-1,-1],"loss_changes":[3.3080585E1,7.019166E0,6.4480267E0,0E0,0E0,5.5556965E-1,0E0,0E0,0E0],"parents":[2147483647,0,0,1,1,2,2,5,5],"right_children":[2,4,6,-1,-1,8,-1,-1,-1],"split_conditions":[2E0,1E0,5E0,-1.3789228E-1,-2.6908976E-3,3E0,3.0110818E-1,7.4566185E-2,1.4553231E-1],"split_indices":[11,11,11,0,0,11,0,0,0],"split_type":[0,0,0,0,0,0,0,0,0],"sum_hessian":[1E2,6.4E1,3.6E1,3.9E1,2.5E1,2.8E1,8E0,2E1,8E0],"tree_param":{"num_deleted":"0","num_feature":"22","num_nodes":"9","size_leaf_vector":"1"}},{"base_weights":[3.7685398E-3,-3.4589538E-1,6.1794114E-1,-1.1100328E-1,-2.1734147E-3,4.1687775E-1,2.5893727E-1,6.0363103E-2,1.2336414E-1],"categories":[],"categories_nodes":[],"categories_segments":[],"categories_sizes":[],"default_left":[0,0,0,0,0,0,0,0,0],"id":1,"left_children":[1,3,5,-1,-1,7,-1,-1,-1],"loss_changes":[2.1903898E1,4.547964E0,4.494817E0,0E0,0E0,5.040097E-1,0E0,0E0,0E0],"parents":[2147483647,0,0,1,1,2,2,5,5],"right_children":[2,4,6,-1,-1,8,-1,-1,-1],"split_conditions":[2E0,1E0,6E0,-1.1100328E-1,-2.1734147E-3,3E0,2.5893727E-1,6.0363103E-2,1.2336414E-1],"split_indices":[11,11,11,0,0,11,0,0,0],"split_type":[0,0,0,0,0,0,0,0,0],"sum_hessian":[1E2,6.4E1,3.6E1,3.9E1,2.5E1,2.9E1,7E0,2E1,9E0],"tree_param":{"num_deleted":"0","num_feature":"22","num_nodes":"9","size_leaf_vector":"1"}},{"base_weights":[6.277088E-3,-2.784575E-1,5.0631684E-1,-8.9357644E-2,-1.7554484E-3,3.6082008E-1,2.3958269E-1,4.8865363E-2,1.06922984E-1],"categories":[],"categories_nodes":[],"categories_segments":[],"categories_sizes":[],"default_left":[0,0,0,0,0,0,0,0,0],"id":2,"left_children":[1,3,5,-1,-1,7,-1,-1,-1],"loss_changes":[1.4521226E1,2.9467845E0,3.2908955E0,0E0,0E0,5.1724863E-1,0E0,0E0,0E0],"parents":[2147483647,0,0,1,1,2,2,5,5],"right_children":[2,4,6,-1,-1,8,-1,-1,-1],"split_conditions":[2E0,1E0,1E1,-8.9357644E-2,-1.7554484E-3,3E0,2.3958269E-1,4.8865363E-2,1.06922984E-1],"split_indices":[11,11,11,0,0,11,0,0,0],"split_type":[0,0,0,0,0,0,0,0,0],"sum_hessian":[1E2,6.4E1,3.6E1,3.9E1,2.5E1,3.1E1,5E0,2E1,1.1E1],"tree_param":{"num_deleted":"0","num_feature":"22","num_nodes":"9","size_leaf_vector":"1"}},{"base_weights":[8.03413E-3,-2.2416772E-1,4.1573915E-1,-7.1932904E-2,-1.417857E-3,2.9352444E-1,1.9965224E-1,4.219634E-2,9.6204914E-2],"categories":[],"categories_nodes":[],"categories_segments":[],"categories_sizes":[],"default_left":[0,0,0,0,0,0,0,0,0],"id":3,"left_children":[1,3,5,-1,-1,7,-1,-1,-1],"loss_changes":[9.654852E0,1.9093227E0,2.3411179E0,0E0,0E0,3.9376926E-1,0E0,0E0,0E0],"parents":[2147483647,0,0,1,1,2,2,5,5],"right_children":[2,4,6,-1,-1,8,-1,-1,-1],"split_conditions":[2E0,1E0,1E1,-7.1932904E-2,-1.417857E-3,4E0,1.9965224E-1,4.219634E-2,9.6204914E-2],"split_indices":[11,11,11,0,0,11,0,0,0],"split_type":[0,0,0,0,0,0,0,0,0],"sum_hessian":[1E2,6.4E1,3.6E1,3.9E1,2.5E1,3.1E1,5E0,2.3E1,8E0],"tree_param":{"num_deleted":"0","num_feature":"22","num_nodes":"9","size_leaf_vector":"1"}},{"base_weights":[9.048136E-3,-1.8046264E-1,3.417279E-1,-5.7905983E-2,-1.1451886E-3,2.391446E-1,1.6637687E-1,3.410871E-2,7.910182E-2],"categories":[],"categories_nodes":[],"categories_segments":[],"categories_sizes":[],"default_left":[0,0,0,0,0,0,0,0,0],"id":4,"left_children":[1,3,5,-1,-1,7,-1,-1,-1],"loss_changes":[6.429356E0,1.2371156E0,1.6614885E0,0E0,0E0,2.7580512E-1,0E0,0E0,0E0],"parents":[2147483647,0,0,1,1,2,2,5,5],"right_children":[2,4,6,-1,-1,8,-1,-1,-1],"split_conditions":[2E0,1E0,1E1,-5.7905983E-2,-1.1451886E-3,4E0,1.6637687E-1,3.410871E-2,7.910182E-2],"split_indices":[16,16,16,0,0,16,0,0,0],"split_type":[0,0,0,0,0,0,0,0,0],"sum_hessian":[1E2,6.4E1,3.6E1,3.9E1,2.5E1,3.1E1,5E0,2.3E1,8E0],"tree_param":{"num_deleted":"0","num_feature":"22","num_nodes":"9","size_leaf_vector":"1"}},{"base_weights":[9.42204E-3,-1.4527859E-1,2.8093877E-1,-4.6614315E-2,-9.249609E-4,1.9485351E-1,6.93237E-1,2.502338E-2,6.013096E-2,8.4015734E-2,2.0590286E-1],"categories":[],"categories_nodes":[],"categories_segments":[],"categories_sizes":[],"default_left":[0,0,0,0,0,0,0,0,0,0,0],"id":5,"left_children":[1,3,5,-1,-1,7,9,-1,-1,-1,-1],"loss_changes":[4.2831993E0,8.01569E-1,1.1781533E0,0E0,0E0,1.9848621E-1,1.1866474E-1,0E0,0E0,0E0,0E0],"parents":[2147483647,0,0,1,1,2,2,5,5,6,6],"right_children":[2,4,6,-1,-1,8,10,-1,-1,-1,-1],"split_conditions":[2E0,1E0,1E1,-4.6614315E-2,-9.249609E-4,3E0,5E1,2.502338E-2,6.013096E-2,8.4015734E-2,2.0590286E-1],"split_indices":[12,12,12,0,0,12,12,0,0,0,0],"split_type":[0,0,0,0,0,0,0,0,0,0,0],"sum_hessian":[1E2,6.4E1,3.6E1,3.9E1,2.5E1,3.1E1,5E0,2E1,1.1E1,4E0,1E0],"tree_param":{"num_deleted":"0","num_feature":"22","num_nodes":"11","size_leaf_vector":"1"}},{"base_weights":[1.0780533E-2,-1.1695425E-1,2.348881E-1,-3.7524525E-2,-7.470869E-4,1.8531258E-1,1.8993707E-1,2.1897366E-2,6.4770006E-2],"categories":[],"categories_nodes":[],"categories_segments":[],"categories_sizes":[],"default_left":[0,0,0,0,0,0,0,0,0],"id":6,"left_children":[1,3,5,-1,-1,-1,7,-1,-1],"loss_changes":[2.9187307E0,5.1936346E-1,9.743972E-1,0E0,0E0,0E0,3.5238266E-1,0E0,0E0],"parents":[2147483647,0,0,1,1,2,2,6,6],"right_children":[2,4,6,-1,-1,-1,8,-1,-1],"split_conditions":[2E0,1E0,1E0,-3.7524525E-2,-7.470869E-4,1.8531258E-1,4E0,2.1897366E-2,6.4770006E-2],"split_indices":[11,11,0,0,0,0,11,0,0],"split_type":[0,0,0,0,0,0,0,0,0],"sum_hessian":[1E2,6.4E1,3.6E1,3.9E1,2.5E1,1E0,3.5E1,2.3E1,1.2E1],"tree_param":{"num_deleted":"0","num_feature":"22","num_nodes":"9","size_leaf_vector":"1"}},{"base_weights":[1.0938379E-2,-4.5407355E-2,3.6433026E-1,-3.0207245E-2,4.1746967E-2,5.2812465E-2,1.6678134E-1,-6.034168E-4,1.770038E-2],"categories":[],"categories_nodes":[],"categories_segments":[],"categories_sizes":[],"default_left":[0,0,0,0,0,0,0,0,0],"id":7,"left_children":[1,3,5,-1,7,-1,-1,-1,-1],"loss_changes":[2.0276678E0,8.1643444E-1,4.3896508E-1,0E0,1.028211E-1,0E0,0E0,0E0,0E0],"parents":[2147483647,0,0,1,1,2,2,4,4],"right_children":[2,4,6,-1,8,-1,-1,-1,-1],"split_conditions":[4E0,1E0,5E1,-3.0207245E-2,2E0,5.2812465E-2,1.6678134E-1,-6.034168E-4,1.770038E-2],"split_indices":[11,11,11,0,11,0,0,0,0],"split_type":[0,0,0,0,0,0,0,0,0],"sum_hessian":[1E2,8.7E1,1.3E1,3.9E1,4.8E1,1.2E1,1E0,2.5E1,2.3E1],"tree_param":{"num_deleted":"0","num_feature":"22","num_nodes":"9","size_leaf_vector":"1"}},{"base_weights":[1.0795084E-2,-4.2255204E-2,2.7541152E-1,-2.431683E-2,2.7645081E-2,1.501032E-1,1.9881025E-1,-4.8737112E-4,1.271459E-2,2.7759923E-2,4.8294183E-2],"categories":[],"categories_nodes":[],"categories_segments":[],"categories_sizes":[],"default_left":[0,0,0,0,0,0,0,0,0,0,0],"id":8,"left_children":[1,3,5,-1,7,-1,9,-1,-1,-1,-1],"loss_changes":[1.4294733E0,4.746961E-1,4.69481E-1,0E0,4.98708E-2,0E0,7.445395E-3,0E0,0E0,0E0,0E0],"parents":[2147483647,0,0,1,1,2,2,4,4,6,6],"right_children":[2,4,6,-1,8,-1,10,-1,-1,-1,-1],"split_conditions":[3E0,1E0,1E0,-2.431683E-2,2E0,1.501032E-1,5E0,-4.8737112E-4,1.271459E-2,2.7759923E-2,4.8294183E-2],"split_indices":[11,11,0,0,11,0,11,0,0,0,0],"split_type":[0,0,0,0,0,0,0,0,0,0,0],"sum_hessian":[1E2,8.4E1,1.6E1,3.9E1,4.5E1,1E0,1.5E1,2.5E1,2E1,8E0,7E0],"tree_param":{"num_deleted":"0","num_feature":"22","num_nodes":"11","size_leaf_vector":"1"}},{"base_weights":[1.0755554E-2,-2.9395679E-2,2.6236647E-1,-1.9575048E-2,2.7105914E-2,1.3509288E-1,3.5726186E-2,-3.936428E-4,1.1494695E-2],"categories":[],"categories_nodes":[],"categories_segments":[],"categories_sizes":[],"default_left":[0,0,0,0,0,0,0,0,0],"id":9,"left_children":[1,3,5,-1,7,-1,-1,-1,-1],"loss_changes":[1.0280639E0,3.43143E-1,3.6361492E-1,0E0,4.3375723E-2,0E0,0E0,0E0,0E0],"parents":[2147483647,0,0,1,1,2,2,4,4],"right_children":[2,4,6,-1,8,-1,-1,-1,-1],"split_conditions":[4E0,1E0,1E0,-1.9575048E-2,2E0,1.3509288E-1,3.5726186E-2,-3.936428E-4,1.1494695E-2],"split_indices":[11,11,0,0,11,0,0,0,0],"split_type":[0,0,0,0,0,0,0,0,0],"sum_hessian":[1E2,8.7E1,1.3E1,3.9E1,4.8E1,1E0,1.2E1,2.5E1,2.3E1],"tree_param":{"num_deleted":"0","num_feature":"22","num_nodes":"9","size_leaf_vector":"1"}},{"base_weights":[1.0211831E-2,-1.1899583E-2,3.622925E-1,-1.5757915E-2,3.5249524E-2,1.2158358E-1,3.8316768E-2,3.5196256E-3,1.999515E-2],"categories":[],"categories_nodes":[],"categories_segments":[],"categories_sizes":[],"default_left":[0,0,0,0,0,0,0,0,0],"id":10,"left_children":[1,3,5,-1,7,-1,-1,-1,-1],"loss_changes":[7.905963E-1,3.0554238E-1,1.3511503E-1,0E0,6.336358E-2,0E0,0E0,0E0,0E0],"parents":[2147483647,0,0,1,1,2,2,4,4],"right_children":[2,4,6,-1,8,-1,-1,-1,-1],"split_conditions":[1E1,1E0,1E0,-1.5757915E-2,3E0,1.2158358E-1,3.8316768E-2,3.5196256E-3,1.999515E-2],"split_indices":[12,12,0,0,12,0,0,0,0],"split_type":[0,0,0,0,0,0,0,0,0],"sum_hessian":[1E2,9.5E1,5E0,3.9E1,5.6E1,1E0,4E0,4.5E1,1.1E1],"tree_param":{"num_deleted":"0","num_feature":"22","num_nodes":"9","size_leaf_vector":"1"}},{"base_weights":[9.829433E-3,-9.438871E-3,3.1648406E-1,-1.268512E-2,2.8612148E-2,3.2186087E-2,1.0942521E-1,-9.948015E-4,1.1001354E-2],"categories":[],"categories_nodes":[],"categories_segments":[],"categories_sizes":[],"default_left":[0,0,0,0,0,0,0,0,0],"id":11,"left_children":[1,3,5,-1,7,-1,-1,-1,-1],"loss_changes":[5.997674E-1,1.9902274E-1,1.272139E-1,0E0,5.0803754E-2,0E0,0E0,0E0,0E0],"parents":[2147483647,0,0,1,1,2,2,4,4],"right_children":[2,4,6,-1,8,-1,-1,-1,-1],"split_conditions":[1E1,1E0,5E1,-1.268512E-2,2E0,3.2186087E-2,1.0942521E-1,-9.948015E-4,1.1001354E-2],"split_indices":[12,12,12,0,12,0,0,0,0],"split_type":[0,0,0,0,0,0,0,0,0],"sum_hessian":[1E2,9.5E1,5E0,3.9E1,5.6E1,4E0,1E0,2.5E1,3.1E1],"tree_param":{"num_deleted":"0","num_feature":"22","num_nodes":"9","size_leaf_vector":"1"}},{"base_weights":[9.23912E-3,9.848268E-2,-5.167563E-4,-3.3027053E-2,5.8196746E-2,-1.0211522E-2,-8.0349355E-4,6.096478E-3,2.0977007E-2],"categories":[],"categories_nodes":[],"categories_segments":[],"categories_sizes":[],"default_left":[0,0,0,0,0,0,0,0,0],"id":12,"left_children":[1,-1,3,5,7,-1,-1,-1,-1],"loss_changes":[4.7634715E-1,0E0,1.9280142E-1,3.379371E-2,4.3384537E-2,0E0,0E0,0E0,0E0],"parents":[2147483647,0,0,2,2,3,3,4,4],"right_children":[2,-1,4,6,8,-1,-1,-1,-1],"split_conditions":[1E0,9.848268E-2,2E0,1E0,4E0,-1.0211522E-2,-8.0349355E-4,6.096478E-3,2.0977007E-2],"split_indices":[0,0,11,11,11,0,0,0,0],"split_type":[0,0,0,0,0,0,0,0,0],"sum_hessian":[1E2,1E0,9.9E1,6.4E1,3.5E1,3.9E1,2.5E1,2.3E1,1.2E1],"tree_param":{"num_deleted":"0","num_feature":"22","num_nodes":"9","size_leaf_vector":"1"}},{"base_weights":[8.525359E-3,8.8634424E-2,-2.5282928E-4,-2.6591115E-2,4.7309432E-2,-8.220276E-3,-6.4897997E-4,6.303759E-3,2.1645023E-2],"categories":[],"categories_nodes":[],"categories_segments":[],"categories_sizes":[],"default_left":[0,0,0,0,0,0,0,0,0],"id":13,"left_children":[1,-1,3,5,7,-1,-1,-1,-1],"loss_changes":[3.8546854E-1,0E0,1.2652884E-1,2.1886013E-2,3.121718E-2,0E0,0E0,0E0,0E0],"parents":[2147483647,0,0,2,2,3,3,4,4],"right_children":[2,-1,4,6,8,-1,-1,-1,-1],"split_conditions":[1E0,8.8634424E-2,2E0,1E0,6E0,-8.220276E-3,-6.4897997E-4,6.303759E-3,2.1645023E-2],"split_indices":[0,0,11,11,11,0,0,0,0],"split_type":[0,0,0,0,0,0,0,0,0],"sum_hessian":[1E2,1E0,9.9E1,6.4E1,3.5E1,3.9E1,2.5E1,2.9E1,6E0],"tree_param":{"num_deleted":"0","num_feature":"22","num_nodes":"9","size_leaf_vector":"1"}},{"base_weights":[7.88675E-3,-1.1479557E-5,7.9770975E-2,-1.2696305E-2,6.737737E-2,-6.617321E-3,1.0620797E-3,9.543638E-3,2.0216791E-2],"categories":[],"categories_nodes":[],"categories_segments":[],"categories_sizes":[],"default_left":[0,0,0,0,0,0,0,0,0],"id":14,"left_children":[1,3,-1,5,7,-1,-1,-1,-1],"loss_changes":[3.1188813E-1,8.633703E-2,0E0,3.1384483E-2,5.7787597E-3,0E0,0E0,0E0,0E0],"parents":[2147483647,0,0,1,1,3,3,4,4],"right_children":[2,4,-1,6,8,-1,-1,-1,-1],"split_conditions":[5E1,3E0,7.9770975E-2,1E0,1E1,-6.617321E-3,1.0620797E-3,9.543638E-3,2.0216791E-2],"split_indices":[11,11,0,11,11,0,0,0,0],"split_type":[0,0,0,0,0,0,0,0,0],"sum_hessian":[1E2,9.9E1,1E0,8.4E1,1.5E1,3.9E1,4.5E1,1.1E1,4E0],"tree_param":{"num_deleted":"0","num_feature":"22","num_nodes":"9","size_leaf_vector":"1"}},{"base_weights":[7.338872E-3,2.3287417E-4,7.179387E-2,-1.7847449E-2,3.2871433E-2,-5.326944E-3,-7.284261E-4,4.187982E-3,1.4402854E-2],"categories":[],"categories_nodes":[],"categories_segments":[],"categories_sizes":[],"default_left":[0,0,0,0,0,0,0,0,0],"id":15,"left_children":[1,3,-1,5,7,-1,-1,-1,-1],"loss_changes":[2.5228363E-1,5.9598234E-2,0E0,8.016681E-3,1.530524E-2,0E0,0E0,0E0,0E0],"parents":[2147483647,0,0,1,1,3,3,4,4],"right_children":[2,4,-1,6,8,-1,-1,-1,-1],"split_conditions":[5E1,2E0,7.179387E-2,1E0,5E0,-5.326944E-3,-7.284261E-4,4.187982E-3,1.4402854E-2],"split_indices":[12,12,0,12,12,0,0,0,0],"split_type":[0,0,0,0,0,0,0,0,0],"sum_hessian":[1E2,9.9E1,1E0,6.4E1,3.5E1,3.9E1,2.5E1,2.8E1,7E0],"tree_param":{"num_deleted":"0","num_feature":"22","num_nodes":"9","size_leaf_vector":"1"}},{"base_weights":[6.706053E-3,6.461449E-2,3.1166495E-4,-8.549422E-3,4.736671E-2,-4.28819E-3,5.6929176E-4,6.5154317E-3,1.4677659E-2],"categories":[],"categories_nodes":[],"categories_segments":[],"categories_sizes":[],"default_left":[0,0,0,0,0,0,0,0,0],"id":16,"left_children":[1,-1,3,5,7,-1,-1,-1,-1],"loss_changes":[2.0421922E-1,0E0,4.210084E-2,1.2548408E-2,3.7667789E-3,0E0,0E0,0E0,0E0],"parents":[2147483647,0,0,2,2,3,3,4,4],"right_children":[2,-1,4,6,8,-1,-1,-1,-1],"split_conditions":[1E0,6.461449E-2,3E0,1E0,1E1,-4.28819E-3,5.6929176E-4,6.5154317E-3,1.4677659E-2],"split_indices":[0,0,11,11,11,0,0,0,0],"split_type":[0,0,0,0,0,0,0,0,0],"sum_hessian":[1E2,1E0,9.9E1,8.4E1,1.5E1,3.9E1,4.5E1,1.1E1,4E0],"tree_param":{"num_deleted":"0","num_feature":"22","num_nodes":"9","size_leaf_vector":"1"}},{"base_weights":[6.1775935E-3,5.8153033E-2,4.2406627E-4,-6.8832994E-3,3.921794E-2,-3.451993E-3,4.579049E-4,5.3209444E-3,1.2329216E-2],"categories":[],"categories_nodes":[],"categories_segments":[],"categories_sizes":[],"default_left":[0,0,0,0,0,0,0,0,0],"id":17,"left_children":[1,-1,3,5,7,-1,-1,-1,-1],"loss_changes":[1.6525233E-1,0E0,2.861805E-2,8.1301E-3,2.8861798E-3,0E0,0E0,0E0,0E0],"parents":[2147483647,0,0,2,2,3,3,4,4],"right_children":[2,-1,4,6,8,-1,-1,-1,-1],"split_conditions":[1E0,5.8153033E-2,3E0,1E0,1E1,-3.451993E-3,4.579049E-4,5.3209444E-3,1.2329216E-2],"split_indices":[0,0,11,11,11,0,0,0,0],"split_type":[0,0,0,0,0,0,0,0,0],"sum_hessian":[1E2,1E0,9.9E1,8.4E1,1.5E1,3.9E1,4.5E1,1.1E1,4E0],"tree_param":{"num_deleted":"0","num_feature":"22","num_nodes":"9","size_leaf_vector":"1"}},{"base_weights":[5.6629768E-3,5.2337743E-2,4.8583234E-4,-1.0122072E-2,1.9625498E-2,-2.7788542E-3,-7.858758E-4,2.7975247E-3,1.0356559E-2],"categories":[],"categories_nodes":[],"categories_segments":[],"categories_sizes":[],"default_left":[0,0,0,0,0,0,0,0,0],"id":18,"left_children":[1,-1,3,5,7,-1,-1,-1,-1],"loss_changes":[1.3374656E-1,0E0,2.0501826E-2,1.4638077E-3,5.8024405E-3,0E0,0E0,0E0,0E0],"parents":[2147483647,0,0,2,2,3,3,4,4],"right_children":[2,-1,4,6,8,-1,-1,-1,-1],"split_conditions":[1E0,5.2337743E-2,2E0,1E0,1E1,-2.7788542E-3,-7.858758E-4,2.7975247E-3,1.0356559E-2],"split_indices":[0,0,11,11,11,0,0,0,0],"split_type":[0,0,0,0,0,0,0,0,0],"sum_hessian":[1E2,1E0,9.9E1,6.4E1,3.5E1,3.9E1,2.5E1,3.1E1,4E0],"tree_param":{"num_deleted":"0","num_feature":"22","num_nodes":"9","size_leaf_vector":"1"}},{"base_weights":[5.143533E-3,4.8457054E-4,4.710398E-2,-4.693937E-3,2.7965106E-2,-1.630499E-3,1.2469292E-3,3.8325728E-3,8.6994935E-3],"categories":[],"categories_nodes":[],"categories_segments":[],"categories_sizes":[],"default_left":[0,0,0,0,0,0,0,0,0],"id":19,"left_children":[1,3,-1,5,7,-1,-1,-1,-1],"loss_changes":[1.0829067E-1,1.4362083E-2,0E0,3.2635853E-3,1.3539772E-3,0E0,0E0,0E0,0E0],"parents":[2147483647,0,0,1,1,3,3,4,4],"right_children":[2,4,-1,6,8,-1,-1,-1,-1],"split_conditions":[5E1,3E0,4.710398E-2,2E0,1E1,-1.630499E-3,1.2469292E-3,3.8325728E-3,8.6994935E-3],"split_indices":[11,11,0,11,11,0,0,0,0],"split_type":[0,0,0,0,0,0,0,0,0],"sum_hessian":[1E2,9.9E1,1E0,8.4E1,1.5E1,6.4E1,2E1,1.1E1,4E0],"tree_param":{"num_deleted":"0","num_feature":"22","num_nodes":"9","size_leaf_vector":"1"}},{"base_weights":[4.7014845E-3,5.0914026E-4,4.239359E-2,-3.7596663E-3,2.3155354E-2,-1.9190304E-3,2.7928015E-4,3.1299335E-3,7.3075867E-3],"categories":[],"categories_nodes":[],"categories_segments":[],"categories_sizes":[],"default_left":[0,0,0,0,0,0,0,0,0],"id":20,"left_children":[1,3,-1,5,7,-1,-1,-1,-1],"loss_changes":[8.765424E-2,9.754287E-3,0E0,2.5708918E-3,1.0353206E-3,0E0,0E0,0E0,0E0],"parents":[2147483647,0,0,1,1,3,3,4,4],"right_children":[2,4,-1,6,8,-1,-1,-1,-1],"split_conditions":[5E1,3E0,4.239359E-2,1E0,1E1,-1.9190304E-3,2.7928015E-4,3.1299335E-3,7.3075867E-3],"split_indices":[11,11,0,11,11,0,0,0,0],"split_type":[0,0,0,0,0,0,0,0,0],"sum_hessian":[1E2,9.9E1,1E0,8.4E1,1.5E1,3.9E1,4.5E1,1.1E1,4E0],"tree_param":{"num_deleted":"0","num_feature":"22","num_nodes":"9","size_leaf_vector":"1"}},{"base_weights":[4.268019E-3,3.8154222E-2,4.9527705E-4,-3.0270386E-3,1.9176625E-2,-1.1006189E-3,9.5621747E-4,2.5561075E-3,6.138382E-3],"categories":[],"categories_nodes":[],"categories_segments":[],"categories_sizes":[],"default_left":[0,0,0,0,0,0,0,0,0],"id":21,"left_children":[1,-1,3,5,7,-1,-1,-1,-1],"loss_changes":[7.0971936E-2,0E0,6.638209E-3,1.6696458E-3,7.861848E-4,0E0,0E0,0E0,0E0],"parents":[2147483647,0,0,2,2,3,3,4,4],"right_children":[2,-1,4,6,8,-1,-1,-1,-1],"split_conditions":[1E0,3.8154222E-2,3E0,2E0,1E1,-1.1006189E-3,9.5621747E-4,2.5561075E-3,6.138382E-3],"split_indices":[0,0,11,11,11,0,0,0,0],"split_type":[0,0,0,0,0,0,0,0,0],"sum_hessian":[1E2,1E0,9.9E1,8.4E1,1.5E1,6.4E1,2E1,1.1E1,4E0],"tree_param":{"num_deleted":"0","num_feature":"22","num_nodes":"9","size_leaf_vector":"1"}},{"base_weights":[3.8768428E-3,3.433881E-2,4.817304E-4,-2.110055E-3,1.7989067E-2,-1.3301988E-3,3.279793E-4,2.3322583E-3,5.15625E-3],"categories":[],"categories_nodes":[],"categories_segments":[],"categories_sizes":[],"default_left":[0,0,0,0,0,0,0,0,0],"id":22,"left_children":[1,-1,3,5,7,-1,-1,-1,-1],"loss_changes":[5.746287E-2,0E0,4.575484E-3,1.5093974E-3,3.4035044E-4,0E0,0E0,0E0,0E0],"parents":[2147483647,0,0,2,2,3,3,4,4],"right_children":[2,-1,4,6,8,-1,-1,-1,-1],"split_conditions":[1E0,3.433881E-2,4E0,1E0,1E1,-1.3301988E-3,3.279793E-4,2.3322583E-3,5.15625E-3],"split_indices":[0,0,11,11,11,0,0,0,0],"split_type":[0,0,0,0,0,0,0,0,0],"sum_hessian":[1E2,1E0,9.9E1,8.7E1,1.2E1,3.9E1,4.8E1,8E0,4E0],"tree_param":{"num_deleted":"0","num_feature":"22","num_nodes":"9","size_leaf_vector":"1"}},{"base_weights":[3.5056884E-3,3.0904938E-2,4.5025154E-4,-3.7474516E-3,8.016931E-3,-1.07081E-3,-2.263257E-4,1.1270524E-3,4.3312456E-3],"categories":[],"categories_nodes":[],"categories_segments":[],"categories_sizes":[],"default_left":[0,0,0,0,0,0,0,0,0],"id":23,"left_children":[1,-1,3,5,7,-1,-1,-1,-1],"loss_changes":[4.6534754E-2,0E0,3.2063103E-3,2.6710867E-4,1.0473959E-3,0E0,0E0,0E0,0E0],"parents":[2147483647,0,0,2,2,3,3,4,4],"right_children":[2,-1,4,6,8,-1,-1,-1,-1],"split_conditions":[1E0,3.0904938E-2,2E0,1E0,1E1,-1.07081E-3,-2.263257E-4,1.1270524E-3,4.3312456E-3],"split_indices":[0,0,11,11,11,0,0,0,0],"split_type":[0,0,0,0,0,0,0,0,0],"sum_hessian":[1E2,1E0,9.9E1,6.4E1,3.5E1,3.9E1,2.5E1,3.1E1,4E0],"tree_param":{"num_deleted":"0","num_feature":"22","num_nodes":"9","size_leaf_vector":"1"}},{"base_weights":[3.1517479E-3,4.0182172E-4,2.7814437E-2,-1.6939352E-3,1.1510417E-2,-8.620021E-4,1.2354748E-4,1.5535157E-3,3.6382296E-3],"categories":[],"categories_nodes":[],"categories_segments":[],"categories_sizes":[],"default_left":[0,0,0,0,0,0,0,0,0],"id":24,"left_children":[1,3,-1,5,7,-1,-1,-1,-1],"loss_changes":[3.7695006E-2,2.3475895E-3,0E0,5.167008E-4,2.5877706E-4,0E0,0E0,0E0,0E0],"parents":[2147483647,0,0,1,1,3,3,4,4],"right_children":[2,4,-1,6,8,-1,-1,-1,-1],"split_conditions":[5E1,3E0,2.7814437E-2,1E0,1E1,-8.620021E-4,1.2354748E-4,1.5535157E-3,3.6382296E-3],"split_indices":[12,12,0,12,12,0,0,0,0],"split_type":[0,0,0,0,0,0,0,0,0],"sum_hessian":[1E2,9.9E1,1E0,8.4E1,1.5E1,3.9E1,4.5E1,1.1E1,4E0],"tree_param":{"num_deleted":"0","num_feature":"22","num_nodes":"9","size_leaf_vector":"1"}},{"base_weights":[2.8408836E-3,2.5032997E-2,3.6599266E-4,-1.1892387E-3,1.086556E-2,-5.0964835E-4,5.081892E-4,1.4411026E-3,3.0561066E-3],"categories":[],"categories_nodes":[],"categories_segments":[],"categories_sizes":[],"default_left":[0,0,0,0,0,0,0,0,0],"id":25,"left_children":[1,-1,3,5,7,-1,-1,-1,-1],"loss_changes":[3.0530812E-2,0E0,1.6458473E-3,4.525762E-4,9.996316E-5,0E0,0E0,0E0,0E0],"parents":[2147483647,0,0,2,2,3,3,4,4],"right_children":[2,-1,4,6,8,-1,-1,-1,-1],"split_conditions":[1E0,2.5032997E-2,4E0,2E0,1E1,-5.0964835E-4,5.081892E-4,1.4411026E-3,3.0561066E-3],"split_indices":[0,0,11,11,11,0,0,0,0],"split_type":[0,0,0,0,0,0,0,0,0],"sum_hessian":[1E2,1E0,9.9E1,8.7E1,1.2E1,6.4E1,2.3E1,8E0,4E0],"tree_param":{"num_deleted":"0","num_feature":"22","num_nodes":"9","size_leaf_vector":"1"}},{"base_weights":[2.5650645E-3,3.3774527E-4,2.2529697E-2,-9.5141574E-4,9.038393E-3,-5.9453025E-4,1.4359782E-4,1.1849033E-3,2.5671388E-3],"categories":[],"categories_nodes":[],"categories_segments":[],"categories_sizes":[],"default_left":[0,0,0,0,0,0,0,0,0],"id":26,"left_children":[1,3,-1,5,7,-1,-1,-1,-1],"loss_changes":[2.4726234E-2,1.1302528E-3,0E0,2.9906922E-4,7.7670906E-5,0E0,0E0,0E0,0E0],"parents":[2147483647,0,0,1,1,3,3,4,4],"right_children":[2,4,-1,6,8,-1,-1,-1,-1],"split_conditions":[5E1,4E0,2.2529697E-2,1E0,1E1,-5.9453025E-4,1.4359782E-4,1.1849033E-3,2.5671388E-3],"split_indices":[11,11,0,11,11,0,0,0,0],"split_type":[0,0,0,0,0,0,0,0,0],"sum_hessian":[1E2,9.9E1,1E0,8.7E1,1.2E1,3.9E1,4.8E1,8E0,4E0],"tree_param":{"num_deleted":"0","num_feature":"22","num_nodes":"9","size_leaf_vector":"1"}},{"base_weights":[2.3077948E-3,3.03199E-4,2.0276738E-2,-7.6626684E-4,7.519337E-3,-3.4899064E-4,3.8325388E-4,9.7424723E-4,2.1564101E-3],"categories":[],"categories_nodes":[],"categories_segments":[],"categories_sizes":[],"default_left":[0,0,0,0,0,0,0,0,0],"id":27,"left_children":[1,3,-1,5,7,-1,-1,-1,-1],"loss_changes":[2.0028578E-2,7.775031E-4,0E0,2.3437559E-4,5.979807E-5,0E0,0E0,0E0,0E0],"parents":[2147483647,0,0,1,1,3,3,4,4],"right_children":[2,4,-1,6,8,-1,-1,-1,-1],"split_conditions":[5E1,4E0,2.0276738E-2,2E0,1E1,-3.4899064E-4,3.8325388E-4,9.7424723E-4,2.1564101E-3],"split_indices":[11,11,0,11,11,0,0,0,0],"split_type":[0,0,0,0,0,0,0,0,0],"sum_hessian":[1E2,9.9E1,1E0,8.7E1,1.2E1,6.4E1,2.3E1,8E0,4E0],"tree_param":{"num_deleted":"0","num_feature":"22","num_nodes":"9","size_leaf_vector":"1"}},{"base_weights":[2.0783213E-3,1.824906E-2,2.7419865E-4,-7.303329E-4,5.593635E-3,-4.1054373E-4,8.708887E-5,7.368982E-4,1.8113708E-3],"categories":[],"categories_nodes":[],"categories_segments":[],"categories_sizes":[],"default_left":[0,0,0,0,0,0,0,0,0],"id":28,"left_children":[1,-1,3,5,7,-1,-1,-1,-1],"loss_changes":[1.6222663E-2,0E0,5.384394E-4,1.3193043E-4,7.2418654E-5,0E0,0E0,0E0,0E0],"parents":[2147483647,0,0,2,2,3,3,4,4],"right_children":[2,-1,4,6,8,-1,-1,-1,-1],"split_conditions":[1E0,1.824906E-2,3E0,1E0,1E1,-4.1054373E-4,8.708887E-5,7.368982E-4,1.8113708E-3],"split_indices":[0,0,14,14,14,0,0,0,0],"split_type":[0,0,0,0,0,0,0,0,0],"sum_hessian":[1E2,1E0,9.9E1,8.4E1,1.5E1,3.9E1,4.5E1,1.1E1,4E0],"tree_param":{"num_deleted":"0","num_feature":"22","num_nodes":"9","size_leaf_vector":"1"}},{"base_weights":[1.8653583E-3,1.6424155E-2,2.4159637E-4,-5.0034886E-4,5.2454104E-3,-2.3770014E-4,2.7684867E-4,6.7002507E-4,1.5215683E-3],"categories":[],"categories_nodes":[],"categories_segments":[],"categories_sizes":[],"default_left":[0,0,0,0,0,0,0,0,0],"id":29,"left_children":[1,-1,3,5,7,-1,-1,-1,-1],"loss_changes":[1.3142045E-2,0E0,3.738801E-4,1.15771094E-4,3.272004E-5,0E0,0E0,0E0,0E0],"parents":[2147483647,0,0,2,2,3,3,4,4],"right_children":[2,-1,4,6,8,-1,-1,-1,-1],"split_conditions":[1E0,1.6424155E-2,4E0,2E0,1E1,-2.3770014E-4,2.7684867E-4,6.7002507E-4,1.5215683E-3],"split_indices":[0,0,11,11,11,0,0,0,0],"split_type":[0,0,0,0,0,0,0,0,0],"sum_hessian":[1E2,1E0,9.9E1,8.7E1,1.2E1,6.4E1,2.3E1,8E0,4E0],"tree_param":{"num_deleted":"0","num_feature":"22","num_nodes":"9","size_leaf_vector":"1"}},{"base_weights":[1.6769946E-3,2.1559083E-4,1.4781738E-2,-3.9982158E-4,4.3648756E-3,-2.8413613E-4,8.8338464E-5,5.509006E-4,1.2781144E-3],"categories":[],"categories_nodes":[],"categories_segments":[],"categories_sizes":[],"default_left":[0,0,0,0,0,0,0,0,0],"id":30,"left_children":[1,3,-1,5,7,-1,-1,-1,-1],"loss_changes":[1.0645593E-2,2.5709733E-4,0E0,7.62254E-5,2.4804816E-5,0E0,0E0,0E0,0E0],"parents":[2147483647,0,0,1,1,3,3,4,4],"right_children":[2,4,-1,6,8,-1,-1,-1,-1],"split_conditions":[5E1,4E0,1.4781738E-2,1E0,1E1,-2.8413613E-4,8.8338464E-5,5.509006E-4,1.2781144E-3],"split_indices":[11,11,0,11,11,0,0,0,0],"split_type":[0,0,0,0,0,0,0,0,0],"sum_hessian":[1E2,9.9E1,1E0,8.7E1,1.2E1,3.9E1,4.8E1,8E0,4E0],"tree_param":{"num_deleted":"0","num_feature":"22","num_nodes":"9","size_leaf_vector":"1"}},{"base_weights":[1.5041232E-3,1.3303566E-2,1.888078E-4,-8.179491E-4,2.0013186E-3,-2.2872956E-4,-5.708291E-5,2.825454E-4,1.0736084E-3],"categories":[],"categories_nodes":[],"categories_segments":[],"categories_sizes":[],"default_left":[0,0,0,0,0,0,0,0,0],"id":31,"left_children":[1,-1,3,5,7,-1,-1,-1,-1],"loss_changes":[8.624308E-3,0E0,1.8411275E-4,1.0947562E-5,6.375494E-5,0E0,0E0,0E0,0E0],"parents":[2147483647,0,0,2,2,3,3,4,4],"right_children":[2,-1,4,6,8,-1,-1,-1,-1],"split_conditions":[1E0,1.3303566E-2,2E0,1E0,1E1,-2.2872956E-4,-5.708291E-5,2.825454E-4,1.0736084E-3],"split_indices":[0,0,11,11,11,0,0,0,0],"split_type":[0,0,0,0,0,0,0,0,0],"sum_hessian":[1E2,1E0,9.9E1,6.4E1,3.5E1,3.9E1,2.5E1,3.1E1,4E0],"tree_param":{"num_deleted":"0","num_feature":"22","num_nodes":"9","size_leaf_vector":"1"}},{"base_weights":[1.3456257E-3,1.1973214E-2,1.6176062E-4,-3.353699E-4,2.7926564E-3,-1.3174988E-4,1.3630731E-4,3.689448E-4,9.0183265E-4],"categories":[],"categories_nodes":[],"categories_segments":[],"categories_sizes":[],"default_left":[0,0,0,0,0,0,0,0,0],"id":32,"left_children":[1,-1,3,5,7,-1,-1,-1,-1],"loss_changes":[6.987628E-3,0E0,1.3172643E-4,2.8400926E-5,1.7715953E-5,0E0,0E0,0E0,0E0],"parents":[2147483647,0,0,2,2,3,3,4,4],"right_children":[2,-1,4,6,8,-1,-1,-1,-1],"split_conditions":[1E0,1.1973214E-2,3E0,2E0,1E1,-1.3174988E-4,1.3630731E-4,3.689448E-4,9.0183265E-4],"split_indices":[0,0,12,12,12,0,0,0,0],"split_type":[0,0,0,0,0,0,0,0,0],"sum_hessian":[1E2,1E0,9.9E1,8.4E1,1.5E1,6.4E1,2E1,1.1E1,4E0],"tree_param":{"num_deleted":"0","num_feature":"22","num_nodes":"9","size_leaf_vector":"1"}},{"base_weights":[1.2076744E-3,1.07759E-2,1.4216111E-4,-2.26065E-4,2.6238333E-3,-1.5843607E-4,4.8136713E-5,3.3715038E-4,7.575226E-4],"categories":[],"categories_nodes":[],"categories_segments":[],"categories_sizes":[],"default_left":[0,0,0,0,0,0,0,0,0],"id":33,"left_children":[1,-1,3,5,7,-1,-1,-1,-1],"loss_changes":[5.6607155E-3,0E0,9.1974805E-5,2.3443215E-5,7.807386E-6,0E0,0E0,0E0,0E0],"parents":[2147483647,0,0,2,2,3,3,4,4],"right_children":[2,-1,4,6,8,-1,-1,-1,-1],"split_conditions":[1E0,1.07759E-2,4E0,1E0,1E1,-1.5843607E-4,4.8136713E-5,3.3715038E-4,7.575226E-4],"split_indices":[0,0,11,11,11,0,0,0,0],"split_type":[0,0,0,0,0,0,0,0,0],"sum_hessian":[1E2,1E0,9.9E1,8.7E1,1.2E1,3.9E1,4.8E1,8E0,4E0],"tree_param":{"num_deleted":"0","num_feature":"22","num_nodes":"9","size_leaf_vector":"1"}},{"base_weights":[1.0825722E-3,1.2356596E-4,9.698319E-3,-1.8211841E-4,2.183309E-3,-9.049942E-5,1.115491E-4,2.7721722E-4,6.3632964E-4],"categories":[],"categories_nodes":[],"categories_segments":[],"categories_sizes":[],"default_left":[0,0,0,0,0,0,0,0,0],"id":34,"left_children":[1,3,-1,5,7,-1,-1,-1,-1],"loss_changes":[4.5860284E-3,6.336075E-5,0E0,1.78562E-5,5.9366503E-6,0E0,0E0,0E0,0E0],"parents":[2147483647,0,0,1,1,3,3,4,4],"right_children":[2,4,-1,6,8,-1,-1,-1,-1],"split_conditions":[5E1,4E0,9.698319E-3,2E0,1E1,-9.049942E-5,1.115491E-4,2.7721722E-4,6.3632964E-4],"split_indices":[11,11,0,11,11,0,0,0,0],"split_type":[0,0,0,0,0,0,0,0,0],"sum_hessian":[1E2,9.9E1,1E0,8.7E1,1.2E1,6.4E1,2.3E1,8E0,4E0],"tree_param":{"num_deleted":"0","num_feature":"22","num_nodes":"9","size_leaf_vector":"1"}},{"base_weights":[9.713256E-4,8.728481E-3,1.0819083E-4,-1.7915889E-4,1.6279742E-3,-1.09893655E-4,2.934881E-5,2.1141172E-4,5.3451536E-4],"categories":[],"categories_nodes":[],"categories_segments":[],"categories_sizes":[],"default_left":[0,0,0,0,0,0,0,0,0],"id":35,"left_children":[1,-1,3,5,7,-1,-1,-1,-1],"loss_changes":[3.715198E-3,0E0,4.3962595E-5,1.0338848E-5,6.7170076E-6,0E0,0E0,0E0,0E0],"parents":[2147483647,0,0,2,2,3,3,4,4],"right_children":[2,-1,4,6,8,-1,-1,-1,-1],"split_conditions":[1E0,8.728481E-3,3E0,1E0,1E1,-1.09893655E-4,2.934881E-5,2.1141172E-4,5.3451536E-4],"split_indices":[0,0,12,12,12,0,0,0,0],"split_type":[0,0,0,0,0,0,0,0,0],"sum_hessian":[1E2,1E0,9.9E1,8.4E1,1.5E1,3.9E1,4.5E1,1.1E1,4E0],"tree_param":{"num_deleted":"0","num_feature":"22","num_nodes":"9","size_leaf_vector":"1"}},{"base_weights":[8.700843E-4,9.3222116E-5,7.8556305E-3,-1.1896765E-4,1.5224126E-3,-6.174808E-5,7.999142E-5,1.9036929E-4,4.489899E-4],"categories":[],"categories_nodes":[],"categories_segments":[],"categories_sizes":[],"default_left":[0,0,0,0,0,0,0,0,0],"id":36,"left_children":[1,3,-1,5,7,-1,-1,-1,-1],"loss_changes":[3.009953E-3,3.0507079E-5,0E0,8.789526E-6,3.222467E-6,0E0,0E0,0E0,0E0],"parents":[2147483647,0,0,1,1,3,3,4,4],"right_children":[2,4,-1,6,8,-1,-1,-1,-1],"split_conditions":[5E1,4E0,7.8556305E-3,2E0,1E1,-6.174808E-5,7.999142E-5,1.9036929E-4,4.489899E-4],"split_indices":[14,14,0,14,14,0,0,0,0],"split_type":[0,0,0,0,0,0,0,0,0],"sum_hessian":[1E2,9.9E1,1E0,8.7E1,1.2E1,6.4E1,2.3E1,8E0,4E0],"tree_param":{"num_deleted":"0","num_feature":"22","num_nodes":"9","size_leaf_vector":"1"}},{"base_weights":[7.803589E-4,8.115603E-5,7.0700645E-3,-9.4965624E-5,1.2671214E-3,-7.6423516E-5,2.8276443E-5,1.5652446E-4,3.7715913E-4],"categories":[],"categories_nodes":[],"categories_segments":[],"categories_sizes":[],"default_left":[0,0,0,0,0,0,0,0,0],"id":37,"left_children":[1,3,-1,5,7,-1,-1,-1,-1],"loss_changes":[2.4384444E-3,2.100775E-5,0E0,6.0263865E-6,2.4208475E-6,0E0,0E0,0E0,0E0],"parents":[2147483647,0,0,1,1,3,3,4,4],"right_children":[2,4,-1,6,8,-1,-1,-1,-1],"split_conditions":[5E1,4E0,7.0700645E-3,1E0,1E1,-7.6423516E-5,2.8276443E-5,1.5652446E-4,3.7715913E-4],"split_indices":[11,11,0,11,11,0,0,0,0],"split_type":[0,0,0,0,0,0,0,0,0],"sum_hessian":[1E2,9.9E1,1E0,8.7E1,1.2E1,3.9E1,4.8E1,8E0,4E0],"tree_param":{"num_deleted":"0","num_feature":"22","num_nodes":"9","size_leaf_vector":"1"}},{"base_weights":[6.9910585E-4,6.979109E-5,6.363058E-3,-9.6482385E-5,9.4875693E-4,-4.2590727E-5,5.3723652E-5,1.2099743E-4,3.1681062E-4],"categories":[],"categories_nodes":[],"categories_segments":[],"categories_sizes":[],"default_left":[0,0,0,0,0,0,0,0,0],"id":38,"left_children":[1,3,-1,5,7,-1,-1,-1,-1],"loss_changes":[1.975549E-3,1.47064075E-5,0E0,3.6717202E-6,2.5359977E-6,0E0,0E0,0E0,0E0],"parents":[2147483647,0,0,1,1,3,3,4,4],"right_children":[2,4,-1,6,8,-1,-1,-1,-1],"split_conditions":[5E1,3E0,6.363058E-3,2E0,1E1,-4.2590727E-5,5.3723652E-5,1.2099743E-4,3.1681062E-4],"split_indices":[11,11,0,11,11,0,0,0,0],"split_type":[0,0,0,0,0,0,0,0,0],"sum_hessian":[1E2,9.9E1,1E0,8.4E1,1.5E1,6.4E1,2E1,1.1E1,4E0],"tree_param":{"num_deleted":"0","num_feature":"22","num_nodes":"9","size_leaf_vector":"1"}},{"base_weights":[6.267261E-4,5.726743E-3,6.0319067E-5,-6.186786E-5,8.8279066E-4,-5.3215743E-5,2.1219497E-5,1.2505055E-5,2.2452355E-4],"categories":[],"categories_nodes":[],"categories_segments":[],"categories_sizes":[],"default_left":[0,0,0,0,0,0,0,0,0],"id":39,"left_children":[1,-1,3,5,7,-1,-1,-1,-1],"loss_changes":[1.6004716E-3,0E0,1.0104143E-5,3.0466606E-6,2.4871924E-6,0E0,0E0,0E0,0E0],"parents":[2147483647,0,0,2,2,3,3,4,4],"right_children":[2,-1,4,6,8,-1,-1,-1,-1],"split_conditions":[1E0,5.726743E-3,4E0,1E0,2.2E1,-5.3215743E-5,2.1219497E-5,1.2505055E-5,2.2452355E-4],"split_indices":[0,0,11,11,0,0,0,0,0],"split_type":[0,0,0,0,0,0,0,0,0],"sum_hessian":[1E2,1E0,9.9E1,8.7E1,1.2E1,3.9E1,4.8E1,3E0,9E0],"tree_param":{"num_deleted":"0","num_feature":"22","num_nodes":"9","size_leaf_vector":"1"}},{"base_weights":[5.601127E-4,5.1540616E-3,5.0307674E-5,-2.9447945E-5,4.0559305E-4,5.3966793E-5,2.3866654E-4],"categories":[],"categories_nodes":[],"categories_segments":[],"categories_sizes":[],"default_left":[0,0,0,0,0,0,0],"id":40,"left_children":[1,-1,3,-1,5,-1,-1],"loss_changes":[1.2967841E-3,0E0,7.07829E-6,0E0,3.52794E-6,0E0,0E0],"parents":[2147483647,0,0,2,2,4,4],"right_children":[2,-1,4,-1,6,-1,-1],"split_conditions":[1E0,5.1540616E-3,2E0,-2.9447945E-5,1E1,5.3966793E-5,2.3866654E-4],"split_indices":[0,0,11,0,11,0,0],"split_type":[0,0,0,0,0,0,0],"sum_hessian":[1E2,1E0,9.9E1,6.4E1,3.5E1,3.1E1,4E0],"tree_param":{"num_deleted":"0","num_feature":"22","num_nodes":"7","size_leaf_vector":"1"}},{"base_weights":[5.0171436E-4,4.2866704E-5,4.638648E-3,-5.4408243E-5,5.569607E-4,-3.709632E-5,1.2150277E-5,6.498893E-5,2.0048142E-4],"categories":[],"categories_nodes":[],"categories_segments":[],"categories_sizes":[],"default_left":[0,0,0,0,0,0,0,0,0],"id":41,"left_children":[1,3,-1,5,7,-1,-1,-1,-1],"loss_changes":[1.050613E-3,5.03115E-6,0E0,1.2942888E-6,1.3278845E-6,0E0,0E0,0E0,0E0],"parents":[2147483647,0,0,1,1,3,3,4,4],"right_children":[2,4,-1,6,8,-1,-1,-1,-1],"split_conditions":[5E1,3E0,4.638648E-3,1E0,1E1,-3.709632E-5,1.2150277E-5,6.498893E-5,2.0048142E-4],"split_indices":[11,11,0,11,11,0,0,0,0],"split_type":[0,0,0,0,0,0,0,0,0],"sum_hessian":[1E2,9.9E1,1E0,8.4E1,1.5E1,3.9E1,4.5E1,1.1E1,4E0],"tree_param":{"num_deleted":"0","num_feature":"22","num_nodes":"9","size_leaf_vector":"1"}},{"base_weights":[4.4967688E-4,3.669557E-5,4.174781E-3,-8.764976E-6,9.2433394E-5],"categories":[],"categories_nodes":[],"categories_segments":[],"categories_sizes":[],"default_left":[0,0,0,0,0],"id":42,"left_children":[1,3,-1,-1,-1],"loss_changes":[8.5115124E-4,3.446169E-6,0E0,0E0,0E0],"parents":[2147483647,0,0,1,1],"right_children":[2,4,-1,-1,-1],"split_conditions":[5E1,3E0,4.174781E-3,-8.764976E-6,9.2433394E-5],"split_indices":[11,11,0,0,0],"split_type":[0,0,0,0,0],"sum_hessian":[1E2,9.9E1,1E0,8.4E1,1.5E1],"tree_param":{"num_deleted":"0","num_feature":"22","num_nodes":"5","size_leaf_vector":"1"}},{"base_weights":[4.0191764E-4,3.7573099E-3,3.020583E-5,-8.535278E-6,1.5359878E-4,4.1478393E-6,-1.3740659E-4],"categories":[],"categories_nodes":[],"categories_segments":[],"categories_sizes":[],"default_left":[0,0,0,0,0,0,0],"id":43,"left_children":[1,-1,3,5,-1,-1,-1],"loss_changes":[6.896448E-4,0E0,2.864828E-6,1.9210638E-6,0E0,0E0,0E0],"parents":[2147483647,0,0,2,2,3,3],"right_children":[2,-1,4,6,-1,-1,-1],"split_conditions":[1E0,3.7573099E-3,1E1,5E0,1.5359878E-4,4.1478393E-6,-1.3740659E-4],"split_indices":[0,0,11,11,0,0,0],"split_type":[0,0,0,0,0,0,0],"sum_hessian":[1E2,1E0,9.9E1,9.5E1,4E0,9.2E1,3E0],"tree_param":{"num_deleted":"0","num_feature":"22","num_nodes":"7","size_leaf_vector":"1"}},{"base_weights":[3.5892797E-4,3.3815862E-3,2.435863E-5,-1.9225892E-5,4.8245987E-5],"categories":[],"categories_nodes":[],"categories_segments":[],"categories_sizes":[],"default_left":[0,0,0,0,0],"id":44,"left_children":[1,-1,3,-1,-1],"loss_changes":[5.588038E-4,0E0,2.63623E-6,0E0,0E0],"parents":[2147483647,0,0,2,2],"right_children":[2,-1,4,-1,-1],"split_conditions":[1E0,3.3815862E-3,2E0,-1.9225892E-5,4.8245987E-5],"split_indices":[0,0,11,0,0],"split_type":[0,0,0,0,0],"sum_hessian":[1E2,1E0,9.9E1,6.4E1,3.5E1],"tree_param":{"num_deleted":"0","num_feature":"22","num_nodes":"5","size_leaf_vector":"1"}},{"base_weights":[3.2091123E-4,3.0434371E-3,1.9776653E-5,-6.412414E-6,3.6916367E-4,-4.5335295E-5,1.14116665E-4],"categories":[],"categories_nodes":[],"categories_segments":[],"categories_sizes":[],"default_left":[0,0,0,0,0,0,0],"id":45,"left_children":[1,-1,3,-1,5,-1,-1],"loss_changes":[4.5276317E-4,0E0,1.8230139E-6,0E0,1.6895189E-6,0E0,0E0],"parents":[2147483647,0,0,2,2,4,4],"right_children":[2,-1,4,-1,6,-1,-1],"split_conditions":[1E0,3.0434371E-3,4E0,-6.412414E-6,2.2E1,-4.5335295E-5,1.14116665E-4],"split_indices":[0,0,11,0,0,0,0],"split_type":[0,0,0,0,0,0,0],"sum_hessian":[1E2,1E0,9.9E1,8.7E1,1.2E1,3E0,9E0],"tree_param":{"num_deleted":"0","num_feature":"22","num_nodes":"7","size_leaf_vector":"1"}},{"base_weights":[2.8749E-4,1.6455313E-5,2.7390958E-3,-1.1357519E-5,1.0943413E-4,3.3831643E-6,-1.3317466E-4],"categories":[],"categories_nodes":[],"categories_segments":[],"categories_sizes":[],"default_left":[0,0,0,0,0,0,0],"id":46,"left_children":[1,3,-1,5,-1,-1,-1],"loss_changes":[3.668116E-4,1.4822841E-6,0E0,1.7877771E-6,0E0,0E0,0E0],"parents":[2147483647,0,0,1,1,3,3],"right_children":[2,4,-1,6,-1,-1,-1],"split_conditions":[5E1,1E1,2.7390958E-3,5E0,1.0943413E-4,3.3831643E-6,-1.3317466E-4],"split_indices":[11,11,0,11,0,0,0],"split_type":[0,0,0,0,0,0,0],"sum_hessian":[1E2,9.9E1,1E0,9.5E1,4E0,9.2E1,3E0],"tree_param":{"num_deleted":"0","num_feature":"22","num_nodes":"7","size_leaf_vector":"1"}},{"base_weights":[2.5691773E-4,2.4651766E-3,1.2969253E-5,-1.4840494E-5,3.4000477E-5],"categories":[],"categories_nodes":[],"categories_segments":[],"categories_sizes":[],"default_left":[0,0,0,0,0],"id":47,"left_children":[1,-1,3,-1,-1],"loss_changes":[2.9720494E-4,0E0,1.3814993E-6,0E0,0E0],"parents":[2147483647,0,0,2,2],"right_children":[2,-1,4,-1,-1],"split_conditions":[1E0,2.4651766E-3,2E0,-1.4840494E-5,3.4000477E-5],"split_indices":[0,0,14,0,0],"split_type":[0,0,0,0,0],"sum_hessian":[1E2,1E0,9.9E1,6.4E1,3.5E1],"tree_param":{"num_deleted":"0","num_feature":"22","num_nodes":"5","size_leaf_vector":"1"}},{"base_weights":[2.3013537E-4,2.2186518E-3,2.1143078E-6],"categories":[],"categories_nodes":[],"categories_segments":[],"categories_sizes":[],"default_left":[0,0,0],"id":48,"left_children":[1,-1,-1],"loss_changes":[2.4078277E-4,0E0,0E0],"parents":[2147483647,0,0],"right_children":[2,-1,-1],"split_conditions":[1E0,2.2186518E-3,2.1143078E-6],"split_indices":[0,0,0],"split_type":[0,0,0],"sum_hessian":[1E2,1E0,9.9E1],"tree_param":{"num_deleted":"0","num_feature":"22","num_nodes":"3","size_leaf_vector":"1"}},{"base_weights":[2.0609143E-4,1.6948801E-6,1.9967796E-3],"categories":[],"categories_nodes":[],"categories_segments":[],"categories_sizes":[],"default_left":[0,0,0],"id":49,"left_children":[1,-1,-1],"loss_changes":[1.9507375E-4,0E0,0E0],"parents":[2147483647,0,0],"right_children":[2,-1,-1],"split_conditions":[5E1,1.6948801E-6,1.9967796E-3],"split_indices":[12,0,0],"split_type":[0,0,0],"sum_hessian":[1E2,9.9E1,1E0],"tree_param":{"num_deleted":"0","num_feature":"22","num_nodes":"3","size_leaf_vector":"1"}},{"base_weights":[1.8467566E-4,1.7971039E-3,1.3624076E-6],"categories":[],"categories_nodes":[],"categories_segments":[],"categories_sizes":[],"default_left":[0,0,0],"id":50,"left_children":[1,-1,-1],"loss_changes":[1.5803914E-4,0E0,0E0],"parents":[2147483647,0,0],"right_children":[2,-1,-1],"split_conditions":[1E0,1.7971039E-3,1.3624076E-6],"split_indices":[0,0,0],"split_type":[0,0,0],"sum_hessian":[1E2,1E0,9.9E1],"tree_param":{"num_deleted":"0","num_feature":"22","num_nodes":"3","size_leaf_vector":"1"}},{"base_weights":[1.6555707E-4,1.617384E-3,1.0948496E-6],"categories":[],"categories_nodes":[],"categories_segments":[],"categories_sizes":[],"default_left":[0,0,0],"id":51,"left_children":[1,-1,-1],"loss_changes":[1.2803121E-4,0E0,0E0],"parents":[2147483647,0,0],"right_children":[2,-1,-1],"split_conditions":[1E0,1.617384E-3,1.0948496E-6],"split_indices":[0,0,0],"split_type":[0,0,0],"sum_hessian":[1E2,1E0,9.9E1],"tree_param":{"num_deleted":"0","num_feature":"22","num_nodes":"3","size_leaf_vector":"1"}},{"base_weights":[1.4847805E-4,1.4556408E-3,8.797516E-7],"categories":[],"categories_nodes":[],"categories_segments":[],"categories_sizes":[],"default_left":[0,0,0],"id":52,"left_children":[1,-1,-1],"loss_changes":[1.0371982E-4,0E0,0E0],"parents":[2147483647,0,0],"right_children":[2,-1,-1],"split_conditions":[1E0,1.4556408E-3,8.797516E-7],"split_indices":[0,0,0],"split_type":[0,0,0],"sum_hessian":[1E2,1E0,9.9E1],"tree_param":{"num_deleted":"0","num_feature":"22","num_nodes":"3","size_leaf_vector":"1"}},{"base_weights":[1.3321181E-4,1.3100862E-3,7.0706136E-7],"categories":[],"categories_nodes":[],"categories_segments":[],"categories_sizes":[],"default_left":[0,0,0],"id":53,"left_children":[1,-1,-1],"loss_changes":[8.402526E-5,0E0,0E0],"parents":[2147483647,0,0],"right_children":[2,-1,-1],"split_conditions":[1E0,1.3100862E-3,7.0706136E-7],"split_indices":[0,0,0],"split_type":[0,0,0],"sum_hessian":[1E2,1E0,9.9E1],"tree_param":{"num_deleted":"0","num_feature":"22","num_nodes":"3","size_leaf_vector":"1"}},{"base_weights":[1.195425E-4,1.1790752E-3,5.6607973E-7],"categories":[],"categories_nodes":[],"categories_segments":[],"categories_sizes":[],"default_left":[0,0,0],"id":54,"left_children":[1,-1,-1],"loss_changes":[6.806839E-5,0E0,0E0],"parents":[2147483647,0,0],"right_children":[2,-1,-1],"split_conditions":[1E0,1.1790752E-3,5.6607973E-7],"split_indices":[0,0,0],"split_type":[0,0,0],"sum_hessian":[1E2,1E0,9.9E1],"tree_param":{"num_deleted":"0","num_feature":"22","num_nodes":"3","size_leaf_vector":"1"}},{"base_weights":[1.07316235E-4,1.0611772E-3,4.5433407E-7],"categories":[],"categories_nodes":[],"categories_segments":[],"categories_sizes":[],"default_left":[0,0,0],"id":55,"left_children":[1,-1,-1],"loss_changes":[5.5142184E-5,0E0,0E0],"parents":[2147483647,0,0],"right_children":[2,-1,-1],"split_conditions":[1E0,1.0611772E-3,4.5433407E-7],"split_indices":[0,0,0],"split_type":[0,0,0],"sum_hessian":[1E2,1E0,9.9E1],"tree_param":{"num_deleted":"0","num_feature":"22","num_nodes":"3","size_leaf_vector":"1"}},{"base_weights":[9.635059E-5,3.616757E-7,9.5505716E-4],"categories":[],"categories_nodes":[],"categories_segments":[],"categories_sizes":[],"default_left":[0,0,0],"id":56,"left_children":[1,-1,-1],"loss_changes":[4.4669407E-5,0E0,0E0],"parents":[2147483647,0,0],"right_children":[2,-1,-1],"split_conditions":[5E1,3.616757E-7,9.5505716E-4],"split_indices":[11,0,0],"split_type":[0,0,0],"sum_hessian":[1E2,9.9E1,1E0],"tree_param":{"num_deleted":"0","num_feature":"22","num_nodes":"3","size_leaf_vector":"1"}},{"base_weights":[8.653727E-5,8.5954665E-4,2.8959616E-7],"categories":[],"categories_nodes":[],"categories_segments":[],"categories_sizes":[],"default_left":[0,0,0],"id":57,"left_children":[1,-1,-1],"loss_changes":[3.6184876E-5,0E0,0E0],"parents":[2147483647,0,0],"right_children":[2,-1,-1],"split_conditions":[1E0,8.5954665E-4,2.8959616E-7],"split_indices":[0,0,0],"split_type":[0,0,0],"sum_hessian":[1E2,1E0,9.9E1],"tree_param":{"num_deleted":"0","num_feature":"22","num_nodes":"3","size_leaf_vector":"1"}},{"base_weights":[7.775917E-5,7.7359675E-4,2.3541706E-7],"categories":[],"categories_nodes":[],"categories_segments":[],"categories_sizes":[],"default_left":[0,0,0],"id":58,"left_children":[1,-1,-1],"loss_changes":[2.9312041E-5,0E0,0E0],"parents":[2147483647,0,0],"right_children":[2,-1,-1],"split_conditions":[1E0,7.7359675E-4,2.3541706E-7],"split_indices":[0,0,0],"split_type":[0,0,0],"sum_hessian":[1E2,1E0,9.9E1],"tree_param":{"num_deleted":"0","num_feature":"22","num_nodes":"3","size_leaf_vector":"1"}},{"base_weights":[6.986655E-5,1.8844459E-7,6.962299E-4],"categories":[],"categories_nodes":[],"categories_segments":[],"categories_sizes":[],"default_left":[0,0,0],"id":59,"left_children":[1,-1,-1],"loss_changes":[2.374388E-5,0E0,0E0],"parents":[2147483647,0,0],"right_children":[2,-1,-1],"split_conditions":[5E1,1.8844459E-7,6.962299E-4],"split_indices":[11,0,0],"split_type":[0,0,0],"sum_hessian":[1E2,9.9E1,1E0],"tree_param":{"num_deleted":"0","num_feature":"22","num_nodes":"3","size_leaf_vector":"1"}},{"base_weights":[6.277401E-5,6.266117E-4,1.4811569E-7],"categories":[],"categories_nodes":[],"categories_segments":[],"categories_sizes":[],"default_left":[0,0,0],"id":60,"left_children":[1,-1,-1],"loss_changes":[1.9234169E-5,0E0,0E0],"parents":[2147483647,0,0],"right_children":[2,-1,-1],"split_conditions":[1E0,6.266117E-4,1.4811569E-7],"split_indices":[0,0,0],"split_type":[0,0,0],"sum_hessian":[1E2,1E0,9.9E1],"tree_param":{"num_deleted":"0","num_feature":"22","num_nodes":"3","size_leaf_vector":"1"}},{"base_weights":[5.643767E-5,5.6395534E-4,1.2130381E-7],"categories":[],"categories_nodes":[],"categories_segments":[],"categories_sizes":[],"default_left":[0,0,0],"id":61,"left_children":[1,-1,-1],"loss_changes":[1.558061E-5,0E0,0E0],"parents":[2147483647,0,0],"right_children":[2,-1,-1],"split_conditions":[1E0,5.6395534E-4,1.2130381E-7],"split_indices":[0,0,0],"split_type":[0,0,0],"sum_hessian":[1E2,1E0,9.9E1],"tree_param":{"num_deleted":"0","num_feature":"22","num_nodes":"3","size_leaf_vector":"1"}},{"base_weights":[5.0732524E-5,9.658324E-8,5.0756935E-4],"categories":[],"categories_nodes":[],"categories_segments":[],"categories_sizes":[],"default_left":[0,0,0],"id":62,"left_children":[1,-1,-1],"loss_changes":[1.2621402E-5,0E0,0E0],"parents":[2147483647,0,0],"right_children":[2,-1,-1],"split_conditions":[5E1,9.658324E-8,5.0756935E-4],"split_indices":[12,0,0],"split_type":[0,0,0],"sum_hessian":[1E2,9.9E1,1E0],"tree_param":{"num_deleted":"0","num_feature":"22","num_nodes":"3","size_leaf_vector":"1"}},{"base_weights":[4.5603458E-5,4.5681E-4,7.569849E-8],"categories":[],"categories_nodes":[],"categories_segments":[],"categories_sizes":[],"default_left":[0,0,0],"id":63,"left_children":[1,-1,-1],"loss_changes":[1.0223736E-5,0E0,0E0],"parents":[2147483647,0,0],"right_children":[2,-1,-1],"split_conditions":[1E0,4.5681E-4,7.569849E-8],"split_indices":[0,0,0],"split_type":[0,0,0],"sum_hessian":[1E2,1E0,9.9E1],"tree_param":{"num_deleted":"0","num_feature":"22","num_nodes":"3","size_leaf_vector":"1"}},{"base_weights":[4.1000014E-5,4.11129E-4,5.9422746E-8],"categories":[],"categories_nodes":[],"categories_segments":[],"categories_sizes":[],"default_left":[0,0,0],"id":64,"left_children":[1,-1,-1],"loss_changes":[8.28158E-6,0E0,0E0],"parents":[2147483647,0,0],"right_children":[2,-1,-1],"split_conditions":[1E0,4.11129E-4,5.9422746E-8],"split_indices":[0,0,0],"split_type":[0,0,0],"sum_hessian":[1E2,1E0,9.9E1],"tree_param":{"num_deleted":"0","num_feature":"22","num_nodes":"3","size_leaf_vector":"1"}},{"base_weights":[3.6892674E-5,3.7002563E-4,5.1807543E-8],"categories":[],"categories_nodes":[],"categories_segments":[],"categories_sizes":[],"default_left":[0,0,0],"id":65,"left_children":[1,-1,-1],"loss_changes":[6.7084875E-6,0E0,0E0],"parents":[2147483647,0,0],"right_children":[2,-1,-1],"split_conditions":[1E0,3.7002563E-4,5.1807543E-8],"split_indices":[0,0,0],"split_type":[0,0,0],"sum_hessian":[1E2,1E0,9.9E1],"tree_param":{"num_deleted":"0","num_feature":"22","num_nodes":"3","size_leaf_vector":"1"}},{"base_weights":[3.3194297E-5,3.3302308E-4,4.4786532E-8],"categories":[],"categories_nodes":[],"categories_segments":[],"categories_sizes":[],"default_left":[0,0,0],"id":66,"left_children":[1,-1,-1],"loss_changes":[5.4339353E-6,0E0,0E0],"parents":[2147483647,0,0],"right_children":[2,-1,-1],"split_conditions":[1E0,3.3302308E-4,4.4786532E-8],"split_indices":[0,0,0],"split_type":[0,0,0],"sum_hessian":[1E2,1E0,9.9E1],"tree_param":{"num_deleted":"0","num_feature":"22","num_nodes":"3","size_leaf_vector":"1"}},{"base_weights":[2.9864521E-5,2.99716E-4,3.8313186E-8],"categories":[],"categories_nodes":[],"categories_segments":[],"categories_sizes":[],"default_left":[0,0,0],"id":67,"left_children":[1,-1,-1],"loss_changes":[4.401407E-6,0E0,0E0],"parents":[2147483647,0,0],"right_children":[2,-1,-1],"split_conditions":[1E0,2.99716E-4,3.8313186E-8],"split_indices":[0,0,0],"split_type":[0,0,0],"sum_hessian":[1E2,1E0,9.9E1],"tree_param":{"num_deleted":"0","num_feature":"22","num_nodes":"3","size_leaf_vector":"1"}},{"base_weights":[2.6867723E-5,-2.1902642E-5,1.6054312E-4,3.165663E-6,-5.992651E-4,-7.5062126E-6,1.19904675E-4,-2.708912E-4,2.0790101E-5],"categories":[],"categories_nodes":[],"categories_segments":[],"categories_sizes":[],"default_left":[0,0,0,0,0,0,0,0,0],"id":68,"left_children":[1,3,-1,5,7,-1,-1,-1,-1],"loss_changes":[3.8392586E-6,1.391353E-6,0E0,2.2795928E-6,2.2650443E-6,0E0,0E0,0E0,0E0],"parents":[2147483647,0,0,1,1,3,3,4,4],"right_children":[2,4,-1,6,8,-1,-1,-1,-1],"split_conditions":[1E1,5E0,1.6054312E-4,4E0,2.2E1,-7.5062126E-6,1.19904675E-4,-2.708912E-4,2.0790101E-5],"split_indices":[15,15,0,15,0,0,0,0,0],"split_type":[0,0,0,0,0,0,0,0,0],"sum_hessian":[1E2,9.5E1,5E0,9.2E1,3E0,8.7E1,5E0,1E0,2E0],"tree_param":{"num_deleted":"0","num_feature":"22","num_nodes":"9","size_leaf_vector":"1"}},{"base_weights":[2.1726026E-5,2.537012E-4,-6.85367E-7],"categories":[],"categories_nodes":[],"categories_segments":[],"categories_sizes":[],"default_left":[0,0,0],"id":69,"left_children":[1,-1,-1],"loss_changes":[3.1717154E-6,0E0,0E0],"parents":[2147483647,0,0],"right_children":[2,-1,-1],"split_conditions":[1E0,2.537012E-4,-6.85367E-7],"split_indices":[0,0,0],"split_type":[0,0,0],"sum_hessian":[1E2,1E0,9.9E1],"tree_param":{"num_deleted":"0","num_feature":"22","num_nodes":"3","size_leaf_vector":"1"}},{"base_weights":[1.9889165E-5,2.2833348E-4,-5.4905803E-7],"categories":[],"categories_nodes":[],"categories_segments":[],"categories_sizes":[],"default_left":[0,0,0],"id":70,"left_children":[1,-1,-1],"loss_changes":[2.567609E-6,0E0,0E0],"parents":[2147483647,0,0],"right_children":[2,-1,-1],"split_conditions":[1E0,2.2833348E-4,-5.4905803E-7],"split_indices":[0,0,0],"split_type":[0,0,0],"sum_hessian":[1E2,1E0,9.9E1],"tree_param":{"num_deleted":"0","num_feature":"22","num_nodes":"3","size_leaf_vector":"1"}},{"base_weights":[1.8174354E-5,-1.7719702E-5,1.17890035E-4,4.9750156E-6,-5.4094195E-4,-5.775904E-6,1.001358E-4,-2.436757E-4,1.8199285E-5],"categories":[],"categories_nodes":[],"categories_segments":[],"categories_sizes":[],"default_left":[0,0,0,0,0,0,0,0,0],"id":71,"left_children":[1,3,-1,5,7,-1,-1,-1,-1],"loss_changes":[2.0814912E-6,1.1426318E-6,0E0,1.5751693E-6,1.8232608E-6,0E0,0E0,0E0,0E0],"parents":[2147483647,0,0,1,1,3,3,4,4],"right_children":[2,4,-1,6,8,-1,-1,-1,-1],"split_conditions":[1E1,5E0,1.17890035E-4,4E0,2.2E1,-5.775904E-6,1.001358E-4,-2.436757E-4,1.8199285E-5],"split_indices":[12,12,0,12,0,0,0,0,0],"split_type":[0,0,0,0,0,0,0,0,0],"sum_hessian":[1E2,9.5E1,5E0,9.2E1,3E0,8.7E1,5E0,1E0,2E0],"tree_param":{"num_deleted":"0","num_feature":"22","num_nodes":"9","size_leaf_vector":"1"}},{"base_weights":[1.4402289E-5,1.937151E-4,-9.650396E-7],"categories":[],"categories_nodes":[],"categories_segments":[],"categories_sizes":[],"default_left":[0,0,0],"id":72,"left_children":[1,-1,-1],"loss_changes":[1.8576552E-6,0E0,0E0],"parents":[2147483647,0,0],"right_children":[2,-1,-1],"split_conditions":[1E0,1.937151E-4,-9.650396E-7],"split_indices":[0,0,0],"split_type":[0,0,0],"sum_hessian":[1E2,1E0,9.9E1],"tree_param":{"num_deleted":"0","num_feature":"22","num_nodes":"3","size_leaf_vector":"1"}},{"base_weights":[1.34223155E-5,-7.7532553E-7,1.7433167E-4],"categories":[],"categories_nodes":[],"categories_segments":[],"categories_sizes":[],"default_left":[0,0,0],"id":73,"left_children":[1,-1,-1],"loss_changes":[1.5028833E-6,0E0,0E0],"parents":[2147483647,0,0],"right_children":[2,-1,-1],"split_conditions":[5E1,-7.7532553E-7,1.7433167E-4],"split_indices":[12,0,0],"split_type":[0,0,0],"sum_hessian":[1E2,9.9E1,1E0],"tree_param":{"num_deleted":"0","num_feature":"22","num_nodes":"3","size_leaf_vector":"1"}},{"base_weights":[1.2472362E-5,-6.1864824E-7,1.5690328E-4],"categories":[],"categories_nodes":[],"categories_segments":[],"categories_sizes":[],"default_left":[0,0,0],"id":74,"left_children":[1,-1,-1],"loss_changes":[1.216177E-6,0E0,0E0],"parents":[2147483647,0,0],"right_children":[2,-1,-1],"split_conditions":[5E1,-6.1864824E-7,1.5690328E-4],"split_indices":[11,0,0],"split_type":[0,0,0],"sum_hessian":[1E2,9.9E1,1E0],"tree_param":{"num_deleted":"0","num_feature":"22","num_nodes":"3","size_leaf_vector":"1"}},{"base_weights":[1.1516791E-5],"categories":[],"categories_nodes":[],"categories_segments":[],"categories_sizes":[],"default_left":[0],"id":75,"left_children":[-1],"loss_changes":[0E0],"parents":[2147483647],"right_children":[-1],"split_conditions":[2.3033583E-6],"split_indices":[0],"split_type":[0],"sum_hessian":[1E2],"tree_param":{"num_deleted":"0","num_feature":"22","num_nodes":"1","size_leaf_vector":"1"}},{"base_weights":[9.238765E-6],"categories":[],"categories_nodes":[],"categories_segments":[],"categories_sizes":[],"default_left":[0],"id":76,"left_children":[-1],"loss_changes":[0E0],"parents":[2147483647],"right_children":[-1],"split_conditions":[1.8477531E-6],"split_indices":[0],"split_type":[0],"sum_hessian":[1E2],"tree_param":{"num_deleted":"0","num_feature":"22","num_nodes":"1","size_leaf_vector":"1"}},{"base_weights":[7.388068E-6],"categories":[],"categories_nodes":[],"categories_segments":[],"categories_sizes":[],"default_left":[0],"id":77,"left_children":[-1],"loss_changes":[0E0],"parents":[2147483647],"right_children":[-1],"split_conditions":[1.4776136E-6],"split_indices":[0],"split_type":[0],"sum_hessian":[1E2],"tree_param":{"num_deleted":"0","num_feature":"22","num_nodes":"1","size_leaf_vector":"1"}},{"base_weights":[5.938777E-6],"categories":[],"categories_nodes":[],"categories_segments":[],"categories_sizes":[],"default_left":[0],"id":78,"left_children":[-1],"loss_changes":[0E0],"parents":[2147483647],"right_children":[-1],"split_conditions":[1.1877554E-6],"split_indices":[0],"split_type":[0],"sum_hessian":[1E2],"tree_param":{"num_deleted":"0","num_feature":"22","num_nodes":"1","size_leaf_vector":"1"}},{"base_weights":[4.7601616E-6],"categories":[],"categories_nodes":[],"categories_segments":[],"categories_sizes":[],"default_left":[0],"id":79,"left_children":[-1],"loss_changes":[0E0],"parents":[2147483647],"right_children":[-1],"split_conditions":[9.5203234E-7],"split_indices":[0],"split_type":[0],"sum_hessian":[1E2],"tree_param":{"num_deleted":"0","num_feature":"22","num_nodes":"1","size_leaf_vector":"1"}},{"base_weights":[3.8165645E-6],"categories":[],"categories_nodes":[],"categories_segments":[],"categories_sizes":[],"default_left":[0],"id":80,"left_children":[-1],"loss_changes":[0E0],"parents":[2147483647],"right_children":[-1],"split_conditions":[7.633129E-7],"split_indices":[0],"split_type":[0],"sum_hessian":[1E2],"tree_param":{"num_deleted":"0","num_feature":"22","num_nodes":"1","size_leaf_vector":"1"}},{"base_weights":[3.07508E-6],"categories":[],"categories_nodes":[],"categories_segments":[],"categories_sizes":[],"default_left":[0],"id":81,"left_children":[-1],"loss_changes":[0E0],"parents":[2147483647],"right_children":[-1],"split_conditions":[6.15016E-7],"split_indices":[0],"split_type":[0],"sum_hessian":[1E2],"tree_param":{"num_deleted":"0","num_feature":"22","num_nodes":"1","size_leaf_vector":"1"}},{"base_weights":[2.4717092E-6],"categories":[],"categories_nodes":[],"categories_segments":[],"categories_sizes":[],"default_left":[0],"id":82,"left_children":[-1],"loss_changes":[0E0],"parents":[2147483647],"right_children":[-1],"split_conditions":[4.9434186E-7],"split_indices":[0],"split_type":[0],"sum_hessian":[1E2],"tree_param":{"num_deleted":"0","num_feature":"22","num_nodes":"1","size_leaf_vector":"1"}},{"base_weights":[1.9928334E-6],"categories":[],"categories_nodes":[],"categories_segments":[],"categories_sizes":[],"default_left":[0],"id":83,"left_children":[-1],"loss_changes":[0E0],"parents":[2147483647],"right_children":[-1],"split_conditions":[3.985667E-7],"split_indices":[0],"split_type":[0],"sum_hessian":[1E2],"tree_param":{"num_deleted":"0","num_feature":"22","num_nodes":"1","size_leaf_vector":"1"}},{"base_weights":[1.6022822E-6],"categories":[],"categories_nodes":[],"categories_segments":[],"categories_sizes":[],"default_left":[0],"id":84,"left_children":[-1],"loss_changes":[0E0],"parents":[2147483647],"right_children":[-1],"split_conditions":[3.2045645E-7],"split_indices":[0],"split_type":[0],"sum_hessian":[1E2],"tree_param":{"num_deleted":"0","num_feature":"22","num_nodes":"1","size_leaf_vector":"1"}},{"base_weights":[1.2832041E-6],"categories":[],"categories_nodes":[],"categories_segments":[],"categories_sizes":[],"default_left":[0],"id":85,"left_children":[-1],"loss_changes":[0E0],"parents":[2147483647],"right_children":[-1],"split_conditions":[2.5664085E-7],"split_indices":[0],"split_type":[0],"sum_hessian":[1E2],"tree_param":{"num_deleted":"0","num_feature":"22","num_nodes":"1","size_leaf_vector":"1"}},{"base_weights":[1.0401111E-6],"categories":[],"categories_nodes":[],"categories_segments":[],"categories_sizes":[],"default_left":[0],"id":86,"left_children":[-1],"loss_changes":[0E0],"parents":[2147483647],"right_children":[-1],"split_conditions":[2.0802223E-7],"split_indices":[0],"split_type":[0],"sum_hessian":[1E2],"tree_param":{"num_deleted":"0","num_feature":"22","num_nodes":"1","size_leaf_vector":"1"}},{"base_weights":[8.3054493E-7],"categories":[],"categories_nodes":[],"categories_segments":[],"categories_sizes":[],"default_left":[0],"id":87,"left_children":[-1],"loss_changes":[0E0],"parents":[2147483647],"right_children":[-1],"split_conditions":[1.6610899E-7],"split_indices":[0],"split_type":[0],"sum_hessian":[1E2],"tree_param":{"num_deleted":"0","num_feature":"22","num_nodes":"1","size_leaf_vector":"1"}},{"base_weights":[6.7375066E-7],"categories":[],"categories_nodes":[],"categories_segments":[],"categories_sizes":[],"default_left":[0],"id":88,"left_children":[-1],"loss_changes":[0E0],"parents":[2147483647],"right_children":[-1],"split_conditions":[1.3475014E-7],"split_indices":[0],"split_type":[0],"sum_hessian":[1E2],"tree_param":{"num_deleted":"0","num_feature":"22","num_nodes":"1","size_leaf_vector":"1"}},{"base_weights":[5.4381906E-7],"categories":[],"categories_nodes":[],"categories_segments":[],"categories_sizes":[],"default_left":[0],"id":89,"left_children":[-1],"loss_changes":[0E0],"parents":[2147483647],"right_children":[-1],"split_conditions":[1.08763814E-7],"split_indices":[0],"split_type":[0],"sum_hessian":[1E2],"tree_param":{"num_deleted":"0","num_feature":"22","num_nodes":"1","size_leaf_vector":"1"}},{"base_weights":[4.3572598E-7],"categories":[],"categories_nodes":[],"categories_segments":[],"categories_sizes":[],"default_left":[0],"id":90,"left_children":[-1],"loss_changes":[0E0],"parents":[2147483647],"right_children":[-1],"split_conditions":[8.7145196E-8],"split_indices":[0],"split_type":[0],"sum_hessian":[1E2],"tree_param":{"num_deleted":"0","num_feature":"22","num_nodes":"1","size_leaf_vector":"1"}},{"base_weights":[3.5073364E-7],"categories":[],"categories_nodes":[],"categories_segments":[],"categories_sizes":[],"default_left":[0],"id":91,"left_children":[-1],"loss_changes":[0E0],"parents":[2147483647],"right_children":[-1],"split_conditions":[7.014673E-8],"split_indices":[0],"split_type":[0],"sum_hessian":[1E2],"tree_param":{"num_deleted":"0","num_feature":"22","num_nodes":"1","size_leaf_vector":"1"}},{"base_weights":[2.7230436E-7],"categories":[],"categories_nodes":[],"categories_segments":[],"categories_sizes":[],"default_left":[0],"id":92,"left_children":[-1],"loss_changes":[0E0],"parents":[2147483647],"right_children":[-1],"split_conditions":[5.4460873E-8],"split_indices":[0],"split_type":[0],"sum_hessian":[1E2],"tree_param":{"num_deleted":"0","num_feature":"22","num_nodes":"1","size_leaf_vector":"1"}},{"base_weights":[2.3652143E-7],"categories":[],"categories_nodes":[],"categories_segments":[],"categories_sizes":[],"default_left":[0],"id":93,"left_children":[-1],"loss_changes":[0E0],"parents":[2147483647],"right_children":[-1],"split_conditions":[4.7304287E-8],"split_indices":[0],"split_type":[0],"sum_hessian":[1E2],"tree_param":{"num_deleted":"0","num_feature":"22","num_nodes":"1","size_leaf_vector":"1"}},{"base_weights":[2.0350306E-7,1.4007092E-4,-2.7603107E-6],"categories":[],"categories_nodes":[],"categories_segments":[],"categories_sizes":[],"default_left":[0,0,0],"id":94,"left_children":[1,-1,-1],"loss_changes":[1.0000372E-6,0E0,0E0],"parents":[2147483647,0,0],"right_children":[2,-1,-1],"split_conditions":[1E0,1.4007092E-4,-2.7603107E-6],"split_indices":[0,0,0],"split_type":[0,0,0],"sum_hessian":[1E2,1E0,9.9E1],"tree_param":{"num_deleted":"0","num_feature":"22","num_nodes":"3","size_leaf_vector":"1"}},{"base_weights":[1.5172259E-6],"categories":[],"categories_nodes":[],"categories_segments":[],"categories_sizes":[],"default_left":[0],"id":95,"left_children":[-1],"loss_changes":[0E0],"parents":[2147483647],"right_children":[-1],"split_conditions":[3.0344518E-7],"split_indices":[0],"split_type":[0],"sum_hessian":[1E2],"tree_param":{"num_deleted":"0","num_feature":"22","num_nodes":"1","size_leaf_vector":"1"}},{"base_weights":[1.2047166E-6],"categories":[],"categories_nodes":[],"categories_segments":[],"categories_sizes":[],"default_left":[0],"id":96,"left_children":[-1],"loss_changes":[0E0],"parents":[2147483647],"right_children":[-1],"split_conditions":[2.409433E-7],"split_indices":[0],"split_type":[0],"sum_hessian":[1E2],"tree_param":{"num_deleted":"0","num_feature":"22","num_nodes":"1","size_leaf_vector":"1"}},{"base_weights":[9.676836E-7],"categories":[],"categories_nodes":[],"categories_segments":[],"categories_sizes":[],"default_left":[0],"id":97,"left_children":[-1],"loss_changes":[0E0],"parents":[2147483647],"right_children":[-1],"split_conditions":[1.9353672E-7],"split_indices":[0],"split_type":[0],"sum_hessian":[1E2],"tree_param":{"num_deleted":"0","num_feature":"22","num_nodes":"1","size_leaf_vector":"1"}},{"base_weights":[7.637112E-7],"categories":[],"categories_nodes":[],"categories_segments":[],"categories_sizes":[],"default_left":[0],"id":98,"left_children":[-1],"loss_changes":[0E0],"parents":[2147483647],"right_children":[-1],"split_conditions":[1.5274225E-7],"split_indices":[0],"split_type":[0],"sum_hessian":[1E2],"tree_param":{"num_deleted":"0","num_feature":"22","num_nodes":"1","size_leaf_vector":"1"}},{"base_weights":[6.1207805E-7],"categories":[],"categories_nodes":[],"categories_segments":[],"categories_sizes":[],"default_left":[0],"id":99,"left_children":[-1],"loss_changes":[0E0],"parents":[2147483647],"right_children":[-1],"split_conditions":[1.2241561E-7],"split_indices":[0],"split_type":[0],"sum_hessian":[1E2],"tree_param":{"num_deleted":"0","num_feature":"22","num_nodes":"1","size_leaf_vector":"1"}}]},"name":"gbtree"},"learner_model_param":{"base_score":"5E-1","boost_from_average":"1","num_class":"0","num_feature":"22","num_target":"1"},"objective":{"name":"reg:squarederror","reg_loss_param":{"scale_pos_weight":"1"}}},"version":[3,0,2]}